<?xml version="1.0"?>
<MethodSetup Method="BDT::BDT_10trees_12maxdepth">
  <GeneralInfo>
    <Info name="TMVA Release" value="4.2.1 [262657]"/>
    <Info name="ROOT Release" value="6.12/07 [396295]"/>
    <Info name="Creator" value="mjoyce"/>
    <Info name="Date" value="Wed Oct  7 13:46:15 2020"/>
    <Info name="Host" value="Linux cmsbuild16.cern.ch 3.10.0-1062.4.1.el7.x86_64 #1 SMP Fri Oct 18 17:15:30 UTC 2019 x86_64 x86_64 x86_64 GNU/Linux"/>
    <Info name="Dir" value="/uscms_data/d3/mjoyce/diPhoton/BDT_Training/tools"/>
    <Info name="Training events" value="7247"/>
    <Info name="TrainingTime" value="1.20316982e-01"/>
    <Info name="AnalysisType" value="Classification"/>
  </GeneralInfo>
  <Options>
    <Option name="V" modified="No">False</Option>
    <Option name="VerbosityLevel" modified="No">Default</Option>
    <Option name="VarTransform" modified="No">None</Option>
    <Option name="H" modified="No">False</Option>
    <Option name="CreateMVAPdfs" modified="No">False</Option>
    <Option name="IgnoreNegWeightsInTraining" modified="No">False</Option>
    <Option name="NTrees" modified="Yes">10</Option>
    <Option name="MaxDepth" modified="Yes">12</Option>
    <Option name="MinNodeSize" modified="No">5%</Option>
    <Option name="nCuts" modified="No">20</Option>
    <Option name="BoostType" modified="No">AdaBoost</Option>
    <Option name="AdaBoostR2Loss" modified="No">quadratic</Option>
    <Option name="UseBaggedBoost" modified="No">False</Option>
    <Option name="Shrinkage" modified="No">1.000000e+00</Option>
    <Option name="AdaBoostBeta" modified="No">5.000000e-01</Option>
    <Option name="UseRandomisedTrees" modified="No">False</Option>
    <Option name="UseNvars" modified="No">3</Option>
    <Option name="UsePoissonNvars" modified="No">True</Option>
    <Option name="BaggedSampleFraction" modified="No">6.000000e-01</Option>
    <Option name="UseYesNoLeaf" modified="No">True</Option>
    <Option name="NegWeightTreatment" modified="No">inverseboostnegweights</Option>
    <Option name="Css" modified="No">1.000000e+00</Option>
    <Option name="Cts_sb" modified="No">1.000000e+00</Option>
    <Option name="Ctb_ss" modified="No">1.000000e+00</Option>
    <Option name="Cbb" modified="No">1.000000e+00</Option>
    <Option name="NodePurityLimit" modified="No">5.000000e-01</Option>
    <Option name="SeparationType" modified="No">giniindex</Option>
    <Option name="RegressionLossFunctionBDTG" modified="No">huber</Option>
    <Option name="HuberQuantile" modified="No">7.000000e-01</Option>
    <Option name="DoBoostMonitor" modified="No">False</Option>
    <Option name="UseFisherCuts" modified="No">False</Option>
    <Option name="MinLinCorrForFisher" modified="No">8.000000e-01</Option>
    <Option name="UseExclusiveVars" modified="No">False</Option>
    <Option name="DoPreselection" modified="No">False</Option>
    <Option name="SigToBkgFraction" modified="No">1.000000e+00</Option>
    <Option name="PruneMethod" modified="No">nopruning</Option>
    <Option name="PruneStrength" modified="No">0.000000e+00</Option>
    <Option name="PruningValFraction" modified="No">5.000000e-01</Option>
    <Option name="SkipNormalization" modified="No">False</Option>
    <Option name="nEventsMin" modified="No">0</Option>
    <Option name="UseBaggedGrad" modified="No">False</Option>
    <Option name="GradBaggingFraction" modified="No">6.000000e-01</Option>
    <Option name="UseNTrainEvents" modified="No">0</Option>
    <Option name="NNodesMax" modified="No">0</Option>
  </Options>
  <Variables NVar="10">
    <Variable VarIndex="0" Expression="mva_ST" Label="mva_ST" Title="mva_ST" Unit="" Internal="mva_ST" Type="F" Min="1.52994919e+02" Max="3.65004102e+03"/>
    <Variable VarIndex="1" Expression="mva_Pt_jets" Label="mva_Pt_jets" Title="mva_Pt_jets" Unit="" Internal="mva_Pt_jets" Type="F" Min="0.00000000e+00" Max="1.56938757e+03"/>
    <Variable VarIndex="2" Expression="mva_dPhi_GG" Label="mva_dPhi_GG" Title="mva_dPhi_GG" Unit="" Internal="mva_dPhi_GG" Type="F" Min="-3.13966751e+00" Max="3.13957286e+00"/>
    <Variable VarIndex="3" Expression="mva_Photons0Et" Label="mva_Photons0Et" Title="mva_Photons0Et" Unit="" Internal="mva_Photons0Et" Type="F" Min="7.53722992e+01" Max="1.27585413e+03"/>
    <Variable VarIndex="4" Expression="mva_Photons1Et" Label="mva_Photons1Et" Title="mva_Photons1Et" Unit="" Internal="mva_Photons1Et" Type="F" Min="7.50300980e+01" Max="5.65674255e+02"/>
    <Variable VarIndex="5" Expression="mva_HardMET" Label="mva_HardMET" Title="mva_HardMET" Unit="" Internal="mva_HardMET" Type="F" Min="1.10000481e+02" Max="1.22042773e+03"/>
    <Variable VarIndex="6" Expression="mva_Pt_GG" Label="mva_Pt_GG" Title="mva_Pt_GG" Unit="" Internal="mva_Pt_GG" Type="F" Min="1.89664292e+00" Max="1.38922681e+03"/>
    <Variable VarIndex="7" Expression="mva_ST_jets" Label="mva_ST_jets" Title="mva_ST_jets" Unit="" Internal="mva_ST_jets" Type="F" Min="0.00000000e+00" Max="3.16598218e+03"/>
    <Variable VarIndex="8" Expression="mva_min_dPhi" Label="mva_min_dPhi" Title="mva_min_dPhi" Unit="" Internal="mva_min_dPhi" Type="F" Min="1.15741721e-04" Max="3.13644600e+00"/>
    <Variable VarIndex="9" Expression="mva_dPhi_GGHardMET" Label="mva_dPhi_GGHardMET" Title="mva_dPhi_GGHardMET" Unit="" Internal="mva_dPhi_GGHardMET" Type="F" Min="-3.14159274e+00" Max="3.14159274e+00"/>
  </Variables>
  <Spectators NSpec="0"/>
  <Classes NClass="2">
    <Class Name="Signal" Index="0"/>
    <Class Name="Background" Index="1"/>
  </Classes>
  <Transformations NTransformations="0"/>
  <MVAPdfs/>
  <Weights NTrees="10" AnalysisType="0">
    <BinaryTree type="DecisionTree" boostWeight="8.7084245291139661e-01" itree="0">
      <Node pos="s" depth="0" NCoef="0" IVar="7" Cut="3.0152212524414062e+02" cType="1" res="-9.9000000000000000e+01" rms="0.0000000000000000e+00" purity="5.0000000000000000e-01" nType="0">
        <Node pos="l" depth="1" NCoef="0" IVar="5" Cut="1.3695440673828125e+02" cType="0" res="-9.9000000000000000e+01" rms="0.0000000000000000e+00" purity="7.6927483081817627e-01" nType="0">
          <Node pos="l" depth="2" NCoef="0" IVar="-1" Cut="0.0000000000000000e+00" cType="1" res="-9.9000000000000000e+01" rms="0.0000000000000000e+00" purity="9.3875080347061157e-01" nType="1"/>
          <Node pos="r" depth="2" NCoef="0" IVar="8" Cut="5.8974355459213257e-01" cType="0" res="-9.9000000000000000e+01" rms="0.0000000000000000e+00" purity="5.2183026075363159e-01" nType="0">
            <Node pos="l" depth="3" NCoef="0" IVar="-1" Cut="0.0000000000000000e+00" cType="1" res="-9.9000000000000000e+01" rms="0.0000000000000000e+00" purity="7.4565505981445312e-01" nType="1"/>
            <Node pos="r" depth="3" NCoef="0" IVar="-1" Cut="1.2152072906494141e+02" cType="0" res="-9.9000000000000000e+01" rms="0.0000000000000000e+00" purity="3.1289857625961304e-01" nType="-1"/>
          </Node>
        </Node>
        <Node pos="r" depth="1" NCoef="0" IVar="5" Cut="1.6287797546386719e+02" cType="0" res="-9.9000000000000000e+01" rms="0.0000000000000000e+00" purity="1.5722662210464478e-01" nType="0">
          <Node pos="l" depth="2" NCoef="0" IVar="-1" Cut="0.0000000000000000e+00" cType="1" res="-9.9000000000000000e+01" rms="0.0000000000000000e+00" purity="5.2613908052444458e-01" nType="1"/>
          <Node pos="r" depth="2" NCoef="0" IVar="-1" Cut="4.3798895263671875e+02" cType="1" res="-9.9000000000000000e+01" rms="0.0000000000000000e+00" purity="4.8662014305591583e-02" nType="-1"/>
        </Node>
      </Node>
    </BinaryTree>
    <BinaryTree type="DecisionTree" boostWeight="7.3402293378574901e-01" itree="1">
      <Node pos="s" depth="0" NCoef="0" IVar="7" Cut="4.5228317260742188e+02" cType="1" res="-9.9000000000000000e+01" rms="0.0000000000000000e+00" purity="4.7564545273780823e-01" nType="0">
        <Node pos="l" depth="1" NCoef="0" IVar="5" Cut="1.6389106750488281e+02" cType="0" res="-9.9000000000000000e+01" rms="0.0000000000000000e+00" purity="6.7454624176025391e-01" nType="0">
          <Node pos="l" depth="2" NCoef="0" IVar="-1" Cut="0.0000000000000000e+00" cType="1" res="-9.9000000000000000e+01" rms="0.0000000000000000e+00" purity="9.3617105484008789e-01" nType="1"/>
          <Node pos="r" depth="2" NCoef="0" IVar="7" Cut="1.7221246337890625e+02" cType="1" res="-9.9000000000000000e+01" rms="0.0000000000000000e+00" purity="5.2737379074096680e-01" nType="0">
            <Node pos="l" depth="3" NCoef="0" IVar="6" Cut="9.8050575256347656e+01" cType="0" res="-9.9000000000000000e+01" rms="0.0000000000000000e+00" purity="6.1681306362152100e-01" nType="0">
              <Node pos="l" depth="4" NCoef="0" IVar="-1" Cut="4.4377693176269531e+01" cType="1" res="-9.9000000000000000e+01" rms="0.0000000000000000e+00" purity="7.0115512609481812e-01" nType="1"/>
              <Node pos="r" depth="4" NCoef="0" IVar="-1" Cut="0.0000000000000000e+00" cType="1" res="-9.9000000000000000e+01" rms="0.0000000000000000e+00" purity="3.9939546585083008e-01" nType="-1"/>
            </Node>
            <Node pos="r" depth="3" NCoef="0" IVar="-1" Cut="1.2275354003906250e+02" cType="0" res="-9.9000000000000000e+01" rms="0.0000000000000000e+00" purity="3.3435443043708801e-01" nType="-1"/>
          </Node>
        </Node>
        <Node pos="r" depth="1" NCoef="0" IVar="-1" Cut="6.5469330549240112e-01" cType="0" res="-9.9000000000000000e+01" rms="0.0000000000000000e+00" purity="9.9284239113330841e-02" nType="-1"/>
      </Node>
    </BinaryTree>
    <BinaryTree type="DecisionTree" boostWeight="5.3916373590608824e-01" itree="2">
      <Node pos="s" depth="0" NCoef="0" IVar="7" Cut="4.5228317260742188e+02" cType="1" res="-9.9000000000000000e+01" rms="0.0000000000000000e+00" purity="4.9504542350769043e-01" nType="0">
        <Node pos="l" depth="1" NCoef="0" IVar="5" Cut="1.6389106750488281e+02" cType="0" res="-9.9000000000000000e+01" rms="0.0000000000000000e+00" purity="6.3903176784515381e-01" nType="0">
          <Node pos="l" depth="2" NCoef="0" IVar="-1" Cut="0.0000000000000000e+00" cType="1" res="-9.9000000000000000e+01" rms="0.0000000000000000e+00" purity="8.7561756372451782e-01" nType="1"/>
          <Node pos="r" depth="2" NCoef="0" IVar="5" Cut="1.2023577880859375e+02" cType="0" res="-9.9000000000000000e+01" rms="0.0000000000000000e+00" purity="5.3415715694427490e-01" nType="0">
            <Node pos="l" depth="3" NCoef="0" IVar="8" Cut="1.4371046423912048e-01" cType="0" res="-9.9000000000000000e+01" rms="0.0000000000000000e+00" purity="6.0837262868881226e-01" nType="0">
              <Node pos="l" depth="4" NCoef="0" IVar="-1" Cut="1.1692710876464844e+02" cType="0" res="-9.9000000000000000e+01" rms="0.0000000000000000e+00" purity="6.4844733476638794e-01" nType="1"/>
              <Node pos="r" depth="4" NCoef="0" IVar="-1" Cut="0.0000000000000000e+00" cType="1" res="-9.9000000000000000e+01" rms="0.0000000000000000e+00" purity="4.2123356461524963e-01" nType="-1"/>
            </Node>
            <Node pos="r" depth="3" NCoef="0" IVar="-1" Cut="4.5620450377464294e-01" cType="0" res="-9.9000000000000000e+01" rms="0.0000000000000000e+00" purity="3.9015024900436401e-01" nType="-1"/>
          </Node>
        </Node>
        <Node pos="r" depth="1" NCoef="0" IVar="8" Cut="6.5469330549240112e-01" cType="0" res="-9.9000000000000000e+01" rms="0.0000000000000000e+00" purity="1.8676333129405975e-01" nType="0">
          <Node pos="l" depth="2" NCoef="0" IVar="-1" Cut="0.0000000000000000e+00" cType="1" res="-9.9000000000000000e+01" rms="0.0000000000000000e+00" purity="5.5831235647201538e-01" nType="1"/>
          <Node pos="r" depth="2" NCoef="0" IVar="-1" Cut="1.6454656982421875e+02" cType="0" res="-9.9000000000000000e+01" rms="0.0000000000000000e+00" purity="8.8949486613273621e-02" nType="-1"/>
        </Node>
      </Node>
    </BinaryTree>
    <BinaryTree type="DecisionTree" boostWeight="5.1682473061881407e-01" itree="3">
      <Node pos="s" depth="0" NCoef="0" IVar="7" Cut="6.0304425048828125e+02" cType="1" res="-9.9000000000000000e+01" rms="0.0000000000000000e+00" purity="4.8451071977615356e-01" nType="0">
        <Node pos="l" depth="1" NCoef="0" IVar="8" Cut="1.3442579507827759e+00" cType="0" res="-9.9000000000000000e+01" rms="0.0000000000000000e+00" purity="5.7926470041275024e-01" nType="0">
          <Node pos="l" depth="2" NCoef="0" IVar="-1" Cut="0.0000000000000000e+00" cType="1" res="-9.9000000000000000e+01" rms="0.0000000000000000e+00" purity="8.8618892431259155e-01" nType="1"/>
          <Node pos="r" depth="2" NCoef="0" IVar="7" Cut="4.0180053710937500e+02" cType="1" res="-9.9000000000000000e+01" rms="0.0000000000000000e+00" purity="5.0288975238800049e-01" nType="0">
            <Node pos="l" depth="3" NCoef="0" IVar="6" Cut="1.8816027832031250e+02" cType="0" res="-9.9000000000000000e+01" rms="0.0000000000000000e+00" purity="5.3843212127685547e-01" nType="0">
              <Node pos="l" depth="4" NCoef="0" IVar="-1" Cut="0.0000000000000000e+00" cType="1" res="-9.9000000000000000e+01" rms="0.0000000000000000e+00" purity="6.8984395265579224e-01" nType="1"/>
              <Node pos="r" depth="4" NCoef="0" IVar="2" Cut="-2.8406560420989990e+00" cType="0" res="-9.9000000000000000e+01" rms="0.0000000000000000e+00" purity="4.7616195678710938e-01" nType="0">
                <Node pos="l" depth="5" NCoef="0" IVar="2" Cut="1.1473332643508911e+00" cType="1" res="-9.9000000000000000e+01" rms="0.0000000000000000e+00" purity="5.1902234554290771e-01" nType="0">
                  <Node pos="l" depth="6" NCoef="0" IVar="-1" Cut="0.0000000000000000e+00" cType="1" res="-9.9000000000000000e+01" rms="0.0000000000000000e+00" purity="6.0735565423965454e-01" nType="1"/>
                  <Node pos="r" depth="6" NCoef="0" IVar="4" Cut="9.2379966735839844e+01" cType="0" res="-9.9000000000000000e+01" rms="0.0000000000000000e+00" purity="4.5753699541091919e-01" nType="0">
                    <Node pos="l" depth="7" NCoef="0" IVar="-1" Cut="0.0000000000000000e+00" cType="1" res="-9.9000000000000000e+01" rms="0.0000000000000000e+00" purity="6.1624479293823242e-01" nType="1"/>
                    <Node pos="r" depth="7" NCoef="0" IVar="-1" Cut="0.0000000000000000e+00" cType="1" res="-9.9000000000000000e+01" rms="0.0000000000000000e+00" purity="2.8494557738304138e-01" nType="-1"/>
                  </Node>
                </Node>
                <Node pos="r" depth="5" NCoef="0" IVar="-1" Cut="0.0000000000000000e+00" cType="1" res="-9.9000000000000000e+01" rms="0.0000000000000000e+00" purity="3.3362951874732971e-01" nType="-1"/>
              </Node>
            </Node>
            <Node pos="r" depth="3" NCoef="0" IVar="-1" Cut="3.3677508544921875e+02" cType="0" res="-9.9000000000000000e+01" rms="0.0000000000000000e+00" purity="3.4162440896034241e-01" nType="-1"/>
          </Node>
        </Node>
        <Node pos="r" depth="1" NCoef="0" IVar="-1" Cut="3.5950398445129395e-01" cType="0" res="-9.9000000000000000e+01" rms="0.0000000000000000e+00" purity="1.4164598286151886e-01" nType="-1"/>
      </Node>
    </BinaryTree>
    <BinaryTree type="DecisionTree" boostWeight="4.1667654647910768e-01" itree="4">
      <Node pos="s" depth="0" NCoef="0" IVar="5" Cut="2.1575546264648438e+02" cType="0" res="-9.9000000000000000e+01" rms="0.0000000000000000e+00" purity="4.8042190074920654e-01" nType="0">
        <Node pos="l" depth="1" NCoef="0" IVar="-1" Cut="0.0000000000000000e+00" cType="1" res="-9.9000000000000000e+01" rms="0.0000000000000000e+00" purity="8.6630624532699585e-01" nType="1"/>
        <Node pos="r" depth="1" NCoef="0" IVar="7" Cut="4.5228317260742188e+02" cType="1" res="-9.9000000000000000e+01" rms="0.0000000000000000e+00" purity="4.1790691018104553e-01" nType="0">
          <Node pos="l" depth="2" NCoef="0" IVar="9" Cut="-2.8423933982849121e+00" cType="1" res="-9.9000000000000000e+01" rms="0.0000000000000000e+00" purity="5.0466501712799072e-01" nType="0">
            <Node pos="l" depth="3" NCoef="0" IVar="-1" Cut="0.0000000000000000e+00" cType="1" res="-9.9000000000000000e+01" rms="0.0000000000000000e+00" purity="6.8216341733932495e-01" nType="1"/>
            <Node pos="r" depth="3" NCoef="0" IVar="9" Cut="1.7169380187988281e+00" cType="0" res="-9.9000000000000000e+01" rms="0.0000000000000000e+00" purity="4.3615198135375977e-01" nType="0">
              <Node pos="l" depth="4" NCoef="0" IVar="-1" Cut="0.0000000000000000e+00" cType="1" res="-9.9000000000000000e+01" rms="0.0000000000000000e+00" purity="5.3310793638229370e-01" nType="1"/>
              <Node pos="r" depth="4" NCoef="0" IVar="-1" Cut="1.3442202806472778e+00" cType="1" res="-9.9000000000000000e+01" rms="0.0000000000000000e+00" purity="3.7208148837089539e-01" nType="-1"/>
            </Node>
          </Node>
          <Node pos="r" depth="2" NCoef="0" IVar="-1" Cut="2.6723654174804688e+02" cType="0" res="-9.9000000000000000e+01" rms="0.0000000000000000e+00" purity="1.8717110157012939e-01" nType="-1"/>
        </Node>
      </Node>
    </BinaryTree>
    <BinaryTree type="DecisionTree" boostWeight="3.7427520917150697e-01" itree="5">
      <Node pos="s" depth="0" NCoef="0" IVar="8" Cut="8.9621007442474365e-01" cType="0" res="-9.9000000000000000e+01" rms="0.0000000000000000e+00" purity="4.8023077845573425e-01" nType="0">
        <Node pos="l" depth="1" NCoef="0" IVar="-1" Cut="1.9852717590332031e+02" cType="0" res="-9.9000000000000000e+01" rms="0.0000000000000000e+00" purity="7.0449137687683105e-01" nType="1"/>
        <Node pos="r" depth="1" NCoef="0" IVar="0" Cut="8.3806750488281250e+02" cType="1" res="-9.9000000000000000e+01" rms="0.0000000000000000e+00" purity="3.9577701687812805e-01" nType="0">
          <Node pos="l" depth="2" NCoef="0" IVar="7" Cut="2.5629983520507812e+02" cType="1" res="-9.9000000000000000e+01" rms="0.0000000000000000e+00" purity="4.7337612509727478e-01" nType="0">
            <Node pos="l" depth="3" NCoef="0" IVar="3" Cut="1.7504803466796875e+02" cType="1" res="-9.9000000000000000e+01" rms="0.0000000000000000e+00" purity="5.0942051410675049e-01" nType="0">
              <Node pos="l" depth="4" NCoef="0" IVar="-1" Cut="0.0000000000000000e+00" cType="1" res="-9.9000000000000000e+01" rms="0.0000000000000000e+00" purity="6.2102228403091431e-01" nType="1"/>
              <Node pos="r" depth="4" NCoef="0" IVar="-1" Cut="3.6496640014648438e+02" cType="0" res="-9.9000000000000000e+01" rms="0.0000000000000000e+00" purity="4.2829549312591553e-01" nType="-1"/>
            </Node>
            <Node pos="r" depth="3" NCoef="0" IVar="1" Cut="2.7155676269531250e+02" cType="0" res="-9.9000000000000000e+01" rms="0.0000000000000000e+00" purity="3.8662713766098022e-01" nType="0">
              <Node pos="l" depth="4" NCoef="0" IVar="-1" Cut="0.0000000000000000e+00" cType="1" res="-9.9000000000000000e+01" rms="0.0000000000000000e+00" purity="5.7700866460800171e-01" nType="1"/>
              <Node pos="r" depth="4" NCoef="0" IVar="-1" Cut="0.0000000000000000e+00" cType="1" res="-9.9000000000000000e+01" rms="0.0000000000000000e+00" purity="1.7999303340911865e-01" nType="-1"/>
            </Node>
          </Node>
          <Node pos="r" depth="2" NCoef="0" IVar="-1" Cut="2.6723654174804688e+02" cType="0" res="-9.9000000000000000e+01" rms="0.0000000000000000e+00" purity="2.3053710162639618e-01" nType="-1"/>
        </Node>
      </Node>
    </BinaryTree>
    <BinaryTree type="DecisionTree" boostWeight="3.8001379128491297e-01" itree="6">
      <Node pos="s" depth="0" NCoef="0" IVar="5" Cut="2.1575546264648438e+02" cType="0" res="-9.9000000000000000e+01" rms="0.0000000000000000e+00" purity="4.7960713505744934e-01" nType="0">
        <Node pos="l" depth="1" NCoef="0" IVar="-1" Cut="0.0000000000000000e+00" cType="1" res="-9.9000000000000000e+01" rms="0.0000000000000000e+00" purity="8.1847119331359863e-01" nType="1"/>
        <Node pos="r" depth="1" NCoef="0" IVar="7" Cut="9.0456634521484375e+02" cType="1" res="-9.9000000000000000e+01" rms="0.0000000000000000e+00" purity="4.2975443601608276e-01" nType="0">
          <Node pos="l" depth="2" NCoef="0" IVar="5" Cut="1.2501226043701172e+02" cType="0" res="-9.9000000000000000e+01" rms="0.0000000000000000e+00" purity="4.5997196435928345e-01" nType="0">
            <Node pos="l" depth="3" NCoef="0" IVar="8" Cut="7.4730598926544189e-01" cType="0" res="-9.9000000000000000e+01" rms="0.0000000000000000e+00" purity="5.2607107162475586e-01" nType="0">
              <Node pos="l" depth="4" NCoef="0" IVar="-1" Cut="0.0000000000000000e+00" cType="1" res="-9.9000000000000000e+01" rms="0.0000000000000000e+00" purity="6.9657957553863525e-01" nType="1"/>
              <Node pos="r" depth="4" NCoef="0" IVar="5" Cut="1.3788517761230469e+02" cType="1" res="-9.9000000000000000e+01" rms="0.0000000000000000e+00" purity="4.4719979166984558e-01" nType="0">
                <Node pos="l" depth="5" NCoef="0" IVar="8" Cut="1.7852187156677246e-01" cType="1" res="-9.9000000000000000e+01" rms="0.0000000000000000e+00" purity="5.5513310432434082e-01" nType="0">
                  <Node pos="l" depth="6" NCoef="0" IVar="-1" Cut="0.0000000000000000e+00" cType="1" res="-9.9000000000000000e+01" rms="0.0000000000000000e+00" purity="6.5807425975799561e-01" nType="1"/>
                  <Node pos="r" depth="6" NCoef="0" IVar="-1" Cut="0.0000000000000000e+00" cType="1" res="-9.9000000000000000e+01" rms="0.0000000000000000e+00" purity="4.8642712831497192e-01" nType="-1"/>
                </Node>
                <Node pos="r" depth="5" NCoef="0" IVar="4" Cut="9.2584182739257812e+01" cType="1" res="-9.9000000000000000e+01" rms="0.0000000000000000e+00" purity="3.7217146158218384e-01" nType="0">
                  <Node pos="l" depth="6" NCoef="0" IVar="-1" Cut="0.0000000000000000e+00" cType="1" res="-9.9000000000000000e+01" rms="0.0000000000000000e+00" purity="5.2314132452011108e-01" nType="1"/>
                  <Node pos="r" depth="6" NCoef="0" IVar="-1" Cut="0.0000000000000000e+00" cType="1" res="-9.9000000000000000e+01" rms="0.0000000000000000e+00" purity="2.5559946894645691e-01" nType="-1"/>
                </Node>
              </Node>
            </Node>
            <Node pos="r" depth="3" NCoef="0" IVar="0" Cut="7.2813708496093750e+02" cType="1" res="-9.9000000000000000e+01" rms="0.0000000000000000e+00" purity="3.6916950345039368e-01" nType="0">
              <Node pos="l" depth="4" NCoef="0" IVar="3" Cut="1.8046336364746094e+02" cType="1" res="-9.9000000000000000e+01" rms="0.0000000000000000e+00" purity="4.2233484983444214e-01" nType="0">
                <Node pos="l" depth="5" NCoef="0" IVar="2" Cut="1.3455041646957397e+00" cType="1" res="-9.9000000000000000e+01" rms="0.0000000000000000e+00" purity="4.7711646556854248e-01" nType="0">
                  <Node pos="l" depth="6" NCoef="0" IVar="-1" Cut="0.0000000000000000e+00" cType="1" res="-9.9000000000000000e+01" rms="0.0000000000000000e+00" purity="5.1398360729217529e-01" nType="1"/>
                  <Node pos="r" depth="6" NCoef="0" IVar="-1" Cut="0.0000000000000000e+00" cType="1" res="-9.9000000000000000e+01" rms="0.0000000000000000e+00" purity="4.3224418163299561e-01" nType="-1"/>
                </Node>
                <Node pos="r" depth="5" NCoef="0" IVar="-1" Cut="0.0000000000000000e+00" cType="1" res="-9.9000000000000000e+01" rms="0.0000000000000000e+00" purity="3.4870150685310364e-01" nType="-1"/>
              </Node>
              <Node pos="r" depth="4" NCoef="0" IVar="-1" Cut="0.0000000000000000e+00" cType="1" res="-9.9000000000000000e+01" rms="0.0000000000000000e+00" purity="8.9624948799610138e-02" nType="-1"/>
            </Node>
          </Node>
          <Node pos="r" depth="2" NCoef="0" IVar="-1" Cut="0.0000000000000000e+00" cType="1" res="-9.9000000000000000e+01" rms="0.0000000000000000e+00" purity="1.3663682341575623e-01" nType="-1"/>
        </Node>
      </Node>
    </BinaryTree>
    <BinaryTree type="DecisionTree" boostWeight="3.4111220711490886e-01" itree="7">
      <Node pos="s" depth="0" NCoef="0" IVar="7" Cut="1.2060885009765625e+03" cType="1" res="-9.9000000000000000e+01" rms="0.0000000000000000e+00" purity="4.7959676384925842e-01" nType="0">
        <Node pos="l" depth="1" NCoef="0" IVar="5" Cut="1.6287797546386719e+02" cType="0" res="-9.9000000000000000e+01" rms="0.0000000000000000e+00" purity="5.0374561548233032e-01" nType="0">
          <Node pos="l" depth="2" NCoef="0" IVar="8" Cut="4.4816291332244873e-01" cType="0" res="-9.9000000000000000e+01" rms="0.0000000000000000e+00" purity="6.9260352849960327e-01" nType="0">
            <Node pos="l" depth="3" NCoef="0" IVar="-1" Cut="0.0000000000000000e+00" cType="1" res="-9.9000000000000000e+01" rms="0.0000000000000000e+00" purity="8.7703287601470947e-01" nType="1"/>
            <Node pos="r" depth="3" NCoef="0" IVar="-1" Cut="0.0000000000000000e+00" cType="1" res="-9.9000000000000000e+01" rms="0.0000000000000000e+00" purity="4.6802157163619995e-01" nType="-1"/>
          </Node>
          <Node pos="r" depth="2" NCoef="0" IVar="7" Cut="5.1687725830078125e+02" cType="1" res="-9.9000000000000000e+01" rms="0.0000000000000000e+00" purity="4.3671184778213501e-01" nType="0">
            <Node pos="l" depth="3" NCoef="0" IVar="9" Cut="-2.8423933982849121e+00" cType="1" res="-9.9000000000000000e+01" rms="0.0000000000000000e+00" purity="4.6345123648643494e-01" nType="0">
              <Node pos="l" depth="4" NCoef="0" IVar="-1" Cut="0.0000000000000000e+00" cType="1" res="-9.9000000000000000e+01" rms="0.0000000000000000e+00" purity="5.6911861896514893e-01" nType="1"/>
              <Node pos="r" depth="4" NCoef="0" IVar="6" Cut="2.6277566528320312e+02" cType="0" res="-9.9000000000000000e+01" rms="0.0000000000000000e+00" purity="4.2780309915542603e-01" nType="0">
                <Node pos="l" depth="5" NCoef="0" IVar="-1" Cut="0.0000000000000000e+00" cType="1" res="-9.9000000000000000e+01" rms="0.0000000000000000e+00" purity="5.8363819122314453e-01" nType="1"/>
                <Node pos="r" depth="5" NCoef="0" IVar="1" Cut="2.3378211975097656e+02" cType="1" res="-9.9000000000000000e+01" rms="0.0000000000000000e+00" purity="3.9801689982414246e-01" nType="0">
                  <Node pos="l" depth="6" NCoef="0" IVar="8" Cut="7.1872663497924805e-01" cType="1" res="-9.9000000000000000e+01" rms="0.0000000000000000e+00" purity="4.2509007453918457e-01" nType="0">
                    <Node pos="l" depth="7" NCoef="0" IVar="2" Cut="7.4829298257827759e-01" cType="0" res="-9.9000000000000000e+01" rms="0.0000000000000000e+00" purity="4.7481891512870789e-01" nType="0">
                      <Node pos="l" depth="8" NCoef="0" IVar="-1" Cut="0.0000000000000000e+00" cType="1" res="-9.9000000000000000e+01" rms="0.0000000000000000e+00" purity="5.4226255416870117e-01" nType="1"/>
                      <Node pos="r" depth="8" NCoef="0" IVar="-1" Cut="0.0000000000000000e+00" cType="1" res="-9.9000000000000000e+01" rms="0.0000000000000000e+00" purity="4.1546881198883057e-01" nType="-1"/>
                    </Node>
                    <Node pos="r" depth="7" NCoef="0" IVar="-1" Cut="0.0000000000000000e+00" cType="1" res="-9.9000000000000000e+01" rms="0.0000000000000000e+00" purity="3.4338104724884033e-01" nType="-1"/>
                  </Node>
                  <Node pos="r" depth="6" NCoef="0" IVar="-1" Cut="0.0000000000000000e+00" cType="1" res="-9.9000000000000000e+01" rms="0.0000000000000000e+00" purity="2.3512883484363556e-01" nType="-1"/>
                </Node>
              </Node>
            </Node>
            <Node pos="r" depth="3" NCoef="0" IVar="-1" Cut="0.0000000000000000e+00" cType="1" res="-9.9000000000000000e+01" rms="0.0000000000000000e+00" purity="2.7223190665245056e-01" nType="-1"/>
          </Node>
        </Node>
        <Node pos="r" depth="1" NCoef="0" IVar="-1" Cut="0.0000000000000000e+00" cType="1" res="-9.9000000000000000e+01" rms="0.0000000000000000e+00" purity="4.0867079049348831e-02" nType="-1"/>
      </Node>
    </BinaryTree>
    <BinaryTree type="DecisionTree" boostWeight="2.9411257304692068e-01" itree="8">
      <Node pos="s" depth="0" NCoef="0" IVar="5" Cut="2.1575546264648438e+02" cType="0" res="-9.9000000000000000e+01" rms="0.0000000000000000e+00" purity="4.8652303218841553e-01" nType="0">
        <Node pos="l" depth="1" NCoef="0" IVar="-1" Cut="0.0000000000000000e+00" cType="1" res="-9.9000000000000000e+01" rms="0.0000000000000000e+00" purity="7.6114970445632935e-01" nType="1"/>
        <Node pos="r" depth="1" NCoef="0" IVar="5" Cut="1.7546176147460938e+02" cType="0" res="-9.9000000000000000e+01" rms="0.0000000000000000e+00" purity="4.5013007521629333e-01" nType="0">
          <Node pos="l" depth="2" NCoef="0" IVar="-1" Cut="0.0000000000000000e+00" cType="1" res="-9.9000000000000000e+01" rms="0.0000000000000000e+00" purity="6.8718183040618896e-01" nType="1"/>
          <Node pos="r" depth="2" NCoef="0" IVar="7" Cut="4.5228317260742188e+02" cType="1" res="-9.9000000000000000e+01" rms="0.0000000000000000e+00" purity="4.1955584287643433e-01" nType="0">
            <Node pos="l" depth="3" NCoef="0" IVar="1" Cut="1.3690632629394531e+02" cType="1" res="-9.9000000000000000e+01" rms="0.0000000000000000e+00" purity="4.5425260066986084e-01" nType="0">
              <Node pos="l" depth="4" NCoef="0" IVar="7" Cut="1.5037867736816406e+02" cType="1" res="-9.9000000000000000e+01" rms="0.0000000000000000e+00" purity="4.9529212713241577e-01" nType="0">
                <Node pos="l" depth="5" NCoef="0" IVar="2" Cut="2.8406012058258057e+00" cType="1" res="-9.9000000000000000e+01" rms="0.0000000000000000e+00" purity="5.1970356702804565e-01" nType="0">
                  <Node pos="l" depth="6" NCoef="0" IVar="-1" Cut="1.2238629913330078e+02" cType="0" res="-9.9000000000000000e+01" rms="0.0000000000000000e+00" purity="5.5846011638641357e-01" nType="1"/>
                  <Node pos="r" depth="6" NCoef="0" IVar="-1" Cut="0.0000000000000000e+00" cType="1" res="-9.9000000000000000e+01" rms="0.0000000000000000e+00" purity="3.8443377614021301e-01" nType="-1"/>
                </Node>
                <Node pos="r" depth="5" NCoef="0" IVar="-1" Cut="0.0000000000000000e+00" cType="1" res="-9.9000000000000000e+01" rms="0.0000000000000000e+00" purity="3.6889070272445679e-01" nType="-1"/>
              </Node>
              <Node pos="r" depth="4" NCoef="0" IVar="-1" Cut="7.4636858701705933e-01" cType="1" res="-9.9000000000000000e+01" rms="0.0000000000000000e+00" purity="3.8054889440536499e-01" nType="-1"/>
            </Node>
            <Node pos="r" depth="3" NCoef="0" IVar="-1" Cut="2.6723654174804688e+02" cType="0" res="-9.9000000000000000e+01" rms="0.0000000000000000e+00" purity="2.8102874755859375e-01" nType="-1"/>
          </Node>
        </Node>
      </Node>
    </BinaryTree>
    <BinaryTree type="DecisionTree" boostWeight="3.2435011866723346e-01" itree="9">
      <Node pos="s" depth="0" NCoef="0" IVar="7" Cut="1.0553273925781250e+03" cType="1" res="-9.9000000000000000e+01" rms="0.0000000000000000e+00" purity="4.8904123902320862e-01" nType="0">
        <Node pos="l" depth="1" NCoef="0" IVar="5" Cut="1.6287797546386719e+02" cType="0" res="-9.9000000000000000e+01" rms="0.0000000000000000e+00" purity="5.1010066270828247e-01" nType="0">
          <Node pos="l" depth="2" NCoef="0" IVar="8" Cut="4.4816291332244873e-01" cType="0" res="-9.9000000000000000e+01" rms="0.0000000000000000e+00" purity="6.5260636806488037e-01" nType="0">
            <Node pos="l" depth="3" NCoef="0" IVar="-1" Cut="0.0000000000000000e+00" cType="1" res="-9.9000000000000000e+01" rms="0.0000000000000000e+00" purity="8.0781292915344238e-01" nType="1"/>
            <Node pos="r" depth="3" NCoef="0" IVar="-1" Cut="0.0000000000000000e+00" cType="1" res="-9.9000000000000000e+01" rms="0.0000000000000000e+00" purity="4.8921290040016174e-01" nType="-1"/>
          </Node>
          <Node pos="r" depth="2" NCoef="0" IVar="6" Cut="2.8009155273437500e+02" cType="0" res="-9.9000000000000000e+01" rms="0.0000000000000000e+00" purity="4.6596834063529968e-01" nType="0">
            <Node pos="l" depth="3" NCoef="0" IVar="8" Cut="4.5104214549064636e-01" cType="0" res="-9.9000000000000000e+01" rms="0.0000000000000000e+00" purity="6.1315888166427612e-01" nType="0">
              <Node pos="l" depth="4" NCoef="0" IVar="-1" Cut="0.0000000000000000e+00" cType="1" res="-9.9000000000000000e+01" rms="0.0000000000000000e+00" purity="7.3180496692657471e-01" nType="1"/>
              <Node pos="r" depth="4" NCoef="0" IVar="-1" Cut="0.0000000000000000e+00" cType="1" res="-9.9000000000000000e+01" rms="0.0000000000000000e+00" purity="4.6638494729995728e-01" nType="-1"/>
            </Node>
            <Node pos="r" depth="3" NCoef="0" IVar="0" Cut="7.4865765380859375e+02" cType="1" res="-9.9000000000000000e+01" rms="0.0000000000000000e+00" purity="4.3738049268722534e-01" nType="0">
              <Node pos="l" depth="4" NCoef="0" IVar="0" Cut="2.9479016113281250e+02" cType="0" res="-9.9000000000000000e+01" rms="0.0000000000000000e+00" purity="4.6741181612014771e-01" nType="0">
                <Node pos="l" depth="5" NCoef="0" IVar="6" Cut="1.3413389587402344e+02" cType="1" res="-9.9000000000000000e+01" rms="0.0000000000000000e+00" purity="4.9610617756843567e-01" nType="0">
                  <Node pos="l" depth="6" NCoef="0" IVar="7" Cut="1.6490446472167969e+02" cType="1" res="-9.9000000000000000e+01" rms="0.0000000000000000e+00" purity="5.6940710544586182e-01" nType="0">
                    <Node pos="l" depth="7" NCoef="0" IVar="-1" Cut="0.0000000000000000e+00" cType="1" res="-9.9000000000000000e+01" rms="0.0000000000000000e+00" purity="6.2437307834625244e-01" nType="1"/>
                    <Node pos="r" depth="7" NCoef="0" IVar="-1" Cut="0.0000000000000000e+00" cType="1" res="-9.9000000000000000e+01" rms="0.0000000000000000e+00" purity="4.0087577700614929e-01" nType="-1"/>
                  </Node>
                  <Node pos="r" depth="6" NCoef="0" IVar="2" Cut="1.3232849538326263e-01" cType="0" res="-9.9000000000000000e+01" rms="0.0000000000000000e+00" purity="4.2133876681327820e-01" nType="0">
                    <Node pos="l" depth="7" NCoef="0" IVar="-1" Cut="0.0000000000000000e+00" cType="1" res="-9.9000000000000000e+01" rms="0.0000000000000000e+00" purity="5.3401219844818115e-01" nType="1"/>
                    <Node pos="r" depth="7" NCoef="0" IVar="-1" Cut="0.0000000000000000e+00" cType="1" res="-9.9000000000000000e+01" rms="0.0000000000000000e+00" purity="3.3737525343894958e-01" nType="-1"/>
                  </Node>
                </Node>
                <Node pos="r" depth="5" NCoef="0" IVar="-1" Cut="0.0000000000000000e+00" cType="1" res="-9.9000000000000000e+01" rms="0.0000000000000000e+00" purity="3.6376056075096130e-01" nType="-1"/>
              </Node>
              <Node pos="r" depth="4" NCoef="0" IVar="-1" Cut="0.0000000000000000e+00" cType="1" res="-9.9000000000000000e+01" rms="0.0000000000000000e+00" purity="1.6885681450366974e-01" nType="-1"/>
            </Node>
          </Node>
        </Node>
        <Node pos="r" depth="1" NCoef="0" IVar="-1" Cut="0.0000000000000000e+00" cType="1" res="-9.9000000000000000e+01" rms="0.0000000000000000e+00" purity="1.7788547277450562e-01" nType="-1"/>
      </Node>
    </BinaryTree>
  </Weights>
</MethodSetup>
